{"weights": [[[-2.0112549144262557, -0.027688445401224226, -0.7217008768883387, -0.36366314298788077, 0.5249564125099772, 1.198900359596815, 1.6553301190579877, 1.0565264658762794, -0.8836099610352419, -1.2108078399795559, 1.3088910417383461, -0.6129350843640886, 2.955771377211029, -0.2405107673390666, -1.5580748273259692, 0.6166694397965099, 0.15335568328796437, 0.8265813948947566, -0.9597299972670984, -2.9244203944449674, -0.6090701393627972, -1.5574873752810392, 2.001235315504174, 1.8677184690821655], [0.7174809631679296, -0.014025553320118914, -0.6221395950652251, -0.7825423004737239, 0.3781089353261066, 1.0087684678928497, -0.6107789478268972, 0.4377394552182539, -0.5690454958750716, -0.6001457964003953, 1.9770344317263104, 0.3944034733269124, -0.18972288713905666, 0.6624622457492698, -2.3332401314541946, 0.28084793653710316, 0.505383459298451, 2.8842021246318237, -0.2494706131777351, 0.7840163657567367, -0.14569584365105542, -0.3034468774004274, -0.6142614035831115, -0.28339182387489803], [0.6758072064181662, -0.5855122693933241, 0.7563928068937776, -0.6728579432278344, 1.569760930567724, 2.817995132767264, -0.0729694422476795, 0.8799185165960611, -0.8960462399092681, -0.6299973424995742, -0.07068813359843286, 0.01431736998960833, -0.9263311212459265, 0.5262593450956976, -0.6303235385317648, -0.5086664746811089, -0.6965349934762327, 1.1457229650853973, 0.0649323083311813, -0.8490702344564857, 0.2873890492223952, 2.4953545614825074, 0.4991473742411583, 1.6268910748638834], [-0.2904175419380033, 1.9830693796215404, 2.2591763068014803, 0.9501902445796626, -2.1588195767460587, -0.4256644333993762, -1.215933210694059, -0.9636804029996243, -0.8047876327459615, -1.6094755430309413, 1.6286349353983156, -0.5716068965599072, -0.7624722415984763, -0.9792117639538009, 1.394652628075212, -0.25126400834793106, -1.5432307816133228, -1.733307362283566, -0.8613052592184665, -0.38155278789374336, 0.8696187585154238, 0.4754912816849983, -0.2898751169675588, -0.9354789413118152], [0.5623013358683786, 0.21898766438970602, 1.4142613439157161, -0.19298583170962602, -0.8006308389074006, 0.7800630532817541, -0.8261200195016667, -0.31717791326600914, -0.7791162634743496, -0.5887711662594596, 0.7856519284064338, -1.0029362278636968, 1.159643248076755, -0.5198841050645711, -0.42865922462457645, 1.2572059617525557, -0.4766764086766752, -0.6092255368392563, 1.5556646639523408, 1.656938144090431, 1.3653757302965697, 0.9704474757392455, -0.6800475845910348, -0.26997948236255714], [-0.5392177898679422, 0.1433083228014273, 1.3608214031807826, -1.9811244118799036, -2.9248019313672753, 1.098166024141676, 0.2962410937482203, 1.8381238026517512, -1.188971929619557, -0.18761984110871466, -0.4201336886840903, 0.5008465356281222, -2.1711683239484225, -1.8321001642887855, -0.339187120842186, -1.4144292171537183, 1.865086442664026, 0.7028366315598787, -1.1189201303847518, -1.4931403584074368, -0.7933061867985342, 1.2860632190753178, -1.642316470310983, 0.2500608299361262], [0.8535438600847562, -1.879979577129953, 0.3276826551652433, 1.475632927241634, 0.5301869044448764, 1.8707172675324755, -0.928210973927392, 0.3640819631216936, 1.549358772285948, 1.0424473426836958, 0.45435140444380523, -0.85107686242826, -0.49563499264768673, 1.1522641560802127, -1.4664913603376541, -0.9155957595398815, 0.9343691191556206, -1.5040554935185193, -0.8174741973049017, -0.36952715105480405, -0.2501451450842156, -0.8171733266954202, -1.422169182427296, -0.30939085271746464], [0.2116699657126915, -1.0912286990320461, -0.1673173999853715, -1.6815274269224645, 0.2716768728907619, -0.7954531869544781, -1.1244586617906698, 1.4713536508148204, -0.20222733704715268, -0.8642506235828104, -0.3764560528246734, 0.17070329617574886, 1.90682928134189, 0.23301511335991393, 1.347412315871343, 0.6717400243938104, -0.4267607069786029, -0.014502117236612891, 0.8598326496272198, 0.9286034971495931, 1.6524677253541742, -0.5683538255023859, 0.6502445065768602, -0.10060223780076559], [-0.020889330812059237, 0.8957285228069921, -0.7549931264512424, 0.4776322386334311, 1.7464972431794379, 0.809659093087698, -0.3853443938946179, -0.5510377900074886, -0.11466835700339287, 1.20119147926102, 1.2549680864773871, 0.3321150524452257, 2.1728840754329006, 0.7568279722136955, 0.3808968969415766, 0.7452811948943059, -0.2518262466781396, -0.6798811304778325, -0.04575084110920853, -0.2460484387592367, -1.8069380087763054, -0.13082985270101738, -0.15397419830586287, 0.46720040004119157], [-0.4681267481224045, -0.6866761970178152, -0.28710563435736364, 0.1822365947377554, 0.4547038727842049, 0.36203309421215396, 0.051603388455870716, -1.1406958651702703, 0.09205229261693418, 1.196611260930558, -0.18363104146681286, 1.0643468092364108, -0.4795147642360271, 1.2764256023814615, -0.08901121034328713, -2.3864215050736077, -1.872198139053028, -2.2108198021591745, 1.4478115746228748, 1.6649999292468218, 0.5614066935636135, -0.37765204827475485, 0.16200305717174013, -0.35542620364134314], [-0.9416115501755791, 1.2339845391088553, 1.744589161942227, -0.0731517898930444, 1.6833872472410936, 1.4026298712463896, -1.6853928879555469, 1.0950404209782993, 0.045395864419765494, 0.14334023986270078, -0.3959288822102901, -2.204106377865247, 0.5498683723966641, 2.3376114751944788, -0.7907714203478834, -2.29091237433637, -0.24415033777682343, -2.3961581421486673, -0.3206437141187648, 1.3677312986762873, 0.006341597654807712, 0.21206278928015057, -0.07532847845280408, 1.2852691508040908], [1.4713880437363396, -1.0242128476238956, -0.46110365362148603, 0.11685318965527773, 0.7488219914928287, -1.878229821558526, 0.5421432872616005, -1.08660821159277, -1.3704904317485755, -1.494758397182101, -1.3900651021281019, -0.20213186189241364, -0.6093799902285656, -0.20584406492464097, 1.2795646683507318, 2.541644727198034, -1.533713811783634, -0.22855426581704602, 0.9606752878100656, -1.62770376037923, 0.3734784718919467, -1.1383038858634071, 0.3180825987650301, 0.48350855911918855], [0.22389408802901672, 0.322480970756422, -0.3585867588722591, -0.1540355333578134, 0.49046712064198683, 2.175586355816097, 1.0885783947766297, -0.5079059768401023, 0.11978324135541069, 1.1671781309509293, -0.2544142971122386, 0.7662180057820692, -0.4651485151041168, -1.6584810323120103, -0.8753087391337753, -0.2468735434342616, 1.9312744240189756, -1.886308473888804, -1.1837928773697948, -0.6628453253758998, -1.772970012679804, 1.5672141125814947, 0.6549632375870356, 0.8727906540791477], [0.9351593039918399, 0.080995240942384, -0.36209688426834463, 0.14768484573518453, -0.9451107273303654, 0.214980988063232, 0.13266695068577786, 1.1760025005452739, -0.5311105076804967, -0.5474589056458024, 0.8271166638538917, 0.5559316913238032, -1.9610006052843565, 1.1985751283658845, 1.297676846158967, -0.2516940234408412, -0.31841438001182065, 0.03738333624764925, 0.32465749127960203, -0.012616213436470916, 0.24240114806740048, -0.3741353359987587, 1.1061531691346593, -0.35206927525117115], [-0.38403103268830163, -1.334332410822044, 0.6746184648196333, -0.3198343418448681, 0.9647587882171154, 0.6681963535177221, -0.34629629324247685, -0.5791748321157677, -0.9168655974086038, -0.8824692389305614, 0.7077568709615385, 1.5944530276193134, -1.60482938685876, -0.593188502157475, 0.5654059954551772, 1.843724488921688, -1.2505941439364265, -1.1380599571211232, -2.138602765392551, -1.0321476858095244, -1.8786559456270615, -0.08631000636281194, -0.5161848394326736, -0.6523162626087976], [0.13593377359661935, -0.06734922964497253, 0.7302069477726825, 1.2081679554769367, 0.3053224534448009, -0.16434612418446454, 1.9082381610662187, -1.3672489404640489, -0.5577005796857997, 1.5443289828059819, -0.6405939876853366, 0.23862851815851296, -2.1261345938483656, 0.178243779387594, -0.5265918064496129, 0.37448518769546024, -0.11075435847355873, -0.23494452343882008, 0.22888392858421586, -0.17363000564147835, -0.34928002839893985, -1.354495991453506, 0.5187396436468186, -0.2043127429610627]], [[0.6075568134633351, 0.19122278488395056, -2.1952551890645653, -1.538626200032196, 0.8598308108687248, 0.8838902441453297, 0.48934276127949256, 0.5377898863624352, 1.7703331086474698, -0.3439278694427784, -0.045330603013119225, 0.15477305485364234, 0.9987093344832217, 0.1238322817404425, -0.8200978887880286, 2.0387097892415356], [0.3553077216922501, -1.649627210092578, 0.9318561721496367, 2.1563174149985267, -1.376311734898189, 0.473619896635308, -1.0242378967467032, 1.7853835365615913, 0.8601660599656704, -0.9713498295456813, -0.4776896373514094, 2.37900128494824, 1.3860555125208065, -0.6158879228114217, -2.013244881557533, 1.3912287075320005], [0.07463404469678535, 1.2312251777966838, -1.501391690812382, 2.513699714664827, -0.6789146737957417, -0.7994349836743997, -1.1449658696574987, -0.3629268549419431, -0.6851853474609436, -2.301161388364144, -1.2555692642619674, 0.5206458746129843, -0.8953726013733337, 1.129213157712422, 0.5268323310219567, -0.3634130600908645], [1.348230949374388, -0.7186736492883321, -0.27084959054828367, -0.37127483648414916, 1.7355908555738646, -0.0834661223146391, -0.09208770560543328, 0.4430739049037829, 0.2440988621551591, -0.8209134066978742, 0.07954238292225924, -1.500366620712349, -0.6295062816729479, 1.5984849544838502, 1.1264140139933894, 1.6325924926496307], [-0.15426153396079342, -0.321526412944217, 0.7565811896092975, 0.08591615665588258, 0.8770148451791363, 1.0011331897296905, -0.5922251561321211, 0.7178339149598518, -0.7214039909409209, -2.0114753231765095, -1.1574998854066685, -0.2993332707812844, 0.07953658290868035, 1.326886776788238, 0.4049095106018741, -0.8379318226034842], [1.7083497318995864, 1.3605340883074932, 0.31946034185215655, -2.185759458408849, -0.7673933907004311, 0.7458343516677886, 0.10584194356915566, 0.14711353123967874, 0.9089829124491684, -0.6901715342386411, 0.16266011115426082, -0.2997281863667829, -0.3200470655658215, -2.266827500918656, 0.5084752223694143, 0.06239851801142823], [0.9235356895902538, -0.0778752484005772, -0.2117764059918957, -1.9727898323346484, 0.545332383740101, -1.0260497353541365, -0.3061995661246981, -0.398383084147946, -0.949451812155352, 0.3467166452463294, -0.3780513951803887, 1.1506079450608384, 1.495656901129755, 0.46020262881633567, 1.4535414436937257, -0.1618437940008328], [-0.6793112816757445, -0.8456776608058386, -0.21146176106974213, -0.3284580294020184, -0.79738977958505, -0.5676258219135032, -0.7432632412265194, 0.45994150316965454, -0.1864883846551872, 0.48718558263021805, -1.6484307808289342, -1.1847963100826628, 0.6138077684809334, 0.34882549598327034, 1.3228744869670697, -0.5055710434190328], [-1.99624044041111, -0.9467179021222628, 0.3048364168384365, 0.5925325273955165, 1.6487729718969906, 0.4180257781374062, 0.22782829005784191, 0.07879657278700965, -0.14935499485167109, 0.6011220710349864, 1.10954974384584, 0.17731261379529117, 0.6821572668962076, 0.7454081982123982, -0.4948532455624988, 0.1339231929500052], [0.2959252531426593, -0.5510583144977285, -1.0851790093555265, 0.36803415564508646, -0.07530351821318707, -0.4327788016843232, 0.6740419060442231, 0.899716566139322, 0.7940143788375871, -1.9517307901258032, -0.10980470076576009, 1.987457454749771, 1.0402534694393688, -0.16986568329942756, -1.3599225366752044, 0.4845992397285999], [-0.8485429746241541, 0.4288307104426959, -0.7480490702496898, 0.8922257060537322, 1.9076857890061643, 0.42467432554345, 0.3646624373601792, 1.146580058510565, 0.6858887596008786, -0.11370428444310943, 1.5211596073145939, -0.9906470105566071, -0.36500159567060025, -0.7978212328140004, -0.517762616210195, -0.846048595493918], [-0.7137451373036747, 0.5407707856352831, -0.9033324351948122, 0.5429818242797001, -1.087910206435647, 0.46013164579410243, 1.478920424024223, 2.1997854740381593, -1.1556436559663723, 0.20923765927633411, 0.48781033613762537, 1.2640285324576674, -0.5710008086703762, -0.6547798021890063, -1.8728127104215093, -0.40318054166940176], [0.1017093316440539, 0.011965868870221233, 0.43259187647761366, -0.05853951079412979, 1.330458654092004, -0.02835261666793272, -0.9060330373591579, 1.5961532284883804, 0.5520835668823988, 0.742135358129073, -0.2354430331940648, -0.4273329920701243, -0.467135402872514, 0.09863341636215518, 3.1701793453003337, -0.38288535126352014], [1.100197943919525, -1.425817836534459, -1.311461071683053, 2.1148163041542674, 1.2369043121153709, 0.1867280978197273, -1.6549987128626014, 0.7310419691103287, -1.2631212130616558, -0.03673844533713697, -0.6375524822120777, 0.15597366002441942, -0.21554433967947473, -1.3746301602691027, -0.8347190500282108, 1.0649925020338864], [1.1886709647383336, -0.4456905981708795, 2.17198794913933, -0.01117634578964791, -0.06854379286375464, 0.7397103867017527, -0.10621266975599555, 0.21583750802594326, -2.028226833602157, 0.39373129328321543, 0.02778725531326237, 1.0222057067140844, 0.2227727410799551, -1.443552483572264, 0.016747319382695455, 0.6823710215011572], [0.6992213652008674, 1.0451863634022625, -0.23767584140979306, -1.2680980261920212, -1.0271549361784174, 0.7871003821256737, -0.8247751567163512, 0.6805331741593671, 0.2625146064621109, -0.23535631546315536, 0.37451893567506395, -0.31272904913299243, -1.3646252890668242, -0.08234306384256769, 1.0596875754191195, -0.23493217139363406]], [[0.37030230660368446, -2.1838017818508706, 0.4226064580920972, 0.6975904299709009, 0.6447587918862145, -0.019357575551004286, -0.30431466978834565, -0.8880303129461272, -1.0976385531833832, -0.203607863418273, -1.6699258889341448, 0.7867106085300536, 0.3664069843844157, 1.1607824470730812, 0.044946958804214225, -2.0228177633230473], [-2.0200145540559054, 0.388681605603086, -0.02899993585137954, 0.6969768487606591, -0.0804414691710818, -0.06280220786729981, -1.3033639994908026, -0.7635462539382976, 0.049954616090368734, -0.023331907341286325, 1.246977469517903, 1.0409961909615837, 1.4582489253126556, -0.4312248224136582, -0.8038932098569721, 1.2506333183177705], [-0.3256391918874906, 0.18875133115867104, 1.8786845376950054, 0.4271543724819514, -1.5266842940358782, 2.0210517184544985, -1.1398479242741166, -0.14305755404549753, 0.45589888714901894, -2.2517856206619706, 0.055161137469429036, 0.9111396276692598, -0.9357471313802889, -0.03163120002123661, 0.6949839539996365, -1.9761853498555424], [0.19184805867728447, 0.7262845279424583, 0.8834781860180947, 0.9050225814401835, -0.6494222388122306, 0.9514479596475133, 1.213219673047998, -0.5880560352210592, 0.3496304471455613, -1.4888917887404884, -0.6224347147389099, -0.45252647711775645, -1.2592620228739748, 1.5738432189979348, -0.23549720968080956, 2.31398302878255]]], "biases": [[[0.06902363179381209], [-0.03738601661571284], [-1.1198000853175465], [-0.9281428914811416], [-0.5496261667921053], [-2.474234560170298], [0.5851159340438289], [-0.8351251551803975], [0.04327026742597821], [-0.2602190121637312], [0.008881600367066436], [0.3890298281019477], [0.8614448316319778], [0.16933737758332898], [0.2268169082058865], [-0.5414044743344361]], [[1.0862847537783904], [-1.1640641594827046], [-0.8183857614929114], [-0.780787560166936], [-0.1136477236118209], [-0.7007677980501845], [-1.994715632958533], [0.04033448138440656], [-0.3369004776555458], [1.3718571308559901], [-1.0596447214891034], [-0.05430616227671407], [1.3349509267523698], [0.32225649017583813], [-0.7873899552749337], [1.1695272104213905]], [[0.7272818610856362], [-1.379571056063249], [-1.3271563067050849], [0.9144433454187963]]]}