{"weights": [[[-0.47360931913290955, -0.19564980488911332, 1.5044505058890563, 0.6127081385179867, 0.20960020352112044, 0.15569065358382989, -2.306092178941309, 1.4103223183434914, 0.946467065287937, -0.24009360892701181, 0.7552581656427932, -0.3436047468121989, 0.40359961493465646, -0.9375023397358191, 0.14299214014775596, 1.2498872941827868, -1.9435965908226454, -0.11626993875744934, -0.5236691205044439, 1.7578551294780416, -1.4924427393035262, 0.24131170050594208, 1.7775025559631636, -0.08221139648401521], [-0.595672794238861, 0.07585795266080717, 0.5154879916966306, 0.5599597345223554, 0.34213804809129206, 0.7534636606665932, -0.6867629887552575, -0.16372224780332503, -0.23349110201830792, -1.1681367762999872, 0.4642219771496803, -1.5187267269009939, -0.4844971157565615, -0.06290891991602657, 0.5437652721931787, 0.06253530982133088, -0.02761844292904203, -0.13842651278159554, -0.3561157712923105, -1.0463246826018326, 2.3551407987121045, 2.3011658230782928, -0.18249433702840506, -0.925112084345482], [0.3993418488130402, -0.7528018830930886, 0.914279333883885, 0.6672186423015702, 1.259601618687305, -1.0461972556582848, 1.2580250544512686, 0.5221927855223142, 0.28031839333982816, -0.17414024777362602, 0.47635863776985055, 0.8140441122914035, -0.4272024393953879, -0.6621241584658953, 1.105577283316363, -1.0921034488644958, -1.4008713013354859, -2.0706668948791296, 0.5755207396702501, -1.310148901335022, -1.0081141620308698, -1.5993989206942683, -0.2128576946204735, -0.7071304958297472], [-0.9582094004869388, 0.6062515170530353, 0.5859754077948738, -0.0940960140506632, -2.5048883473540813, -0.8894215957768637, -1.77818826937078, 0.507725405762416, -0.1865575530808635, 0.921742717302987, 0.3637184182080195, -2.4294966339878377, -1.7167259575147995, 1.353382854962607, 0.10203302830311226, -1.0288976523454267, 0.3502767509310848, 1.1189839331402365, 0.5695758688381248, -0.2735895210083108, 0.05084331566566841, 0.5750246651041464, 0.7493016619409169, 0.6957753950507118], [-0.9832718384756578, 0.808724176596275, -0.9846215357074172, 0.6542978456968737, 2.454602894584551, 1.7334818508143885, 1.322144531718323, -0.28264936689571013, 1.5469089822443813, -0.029873581728715126, -0.4907913699399334, 1.0498819116728388, 0.10537972016495734, 0.47038339913174676, -1.1708151556212432, 1.3443473281986724, -1.7040382380976948, 1.129011466899097, 0.041287398433779626, -0.044947461099671626, 0.2081970309999505, 0.6258667551549973, -2.646841634619634, 1.1811924519405916], [-0.9601653220763634, 0.9812064354343669, -1.4832258476024562, -0.06363336617993098, -0.6493582997228109, -0.34922392503298394, -0.8199221525258844, -2.056997694159221, 1.851060472761908, 0.657750443096984, -0.30956994726857223, 0.3745710351588738, 1.4938091218747458, 0.0050933477230924035, 0.250480526875767, -2.0858621077022903, -0.556360278042675, 0.1311724310344059, -1.0256229954122147, 0.06548764182520826, -1.3883971086621012, 0.34662854619346434, 0.09508636634777148, -0.3943694609268451], [-1.7720600372286262, 2.3109149592408875, -1.1024990187952781, -1.2222101639281544, -0.16591504676899999, -0.3258097962380514, -0.102431176050594, -1.4644462346983442, 0.19267422814067373, 0.039933084463744696, 0.17640365905773742, -0.49427844975466984, -0.4181726753519298, -0.8563039088818613, -0.20002403291774376, -1.2188796555500763, 0.03175228146800807, -1.4496027993108367, 0.5199825787278836, 1.5470840534575214, 0.13760044094547003, -0.25352267498848724, 0.6177221671051598, -1.155857318909696], [-0.02513469296648156, -1.7807498398613995, 0.027119390470704274, -1.2637549210773114, -2.0250230994760545, -0.5275413373576938, 0.1673438659301124, -1.5747977345051858, 1.1967704859990225, -1.3329789113614683, -0.4318546891980203, 1.2532077846822258, -1.2806957085126365, -0.527021071420422, -0.6923183715359067, -0.09673237784291167, 0.09070258490052449, -0.21856078300881487, 0.13106047271667354, -0.01017855501720668, -0.8111710313348807, 2.029948971972462, 1.5017270655696264, -0.9515392129580268], [-0.06631407534124781, 2.0783721243349524, 0.35954462088938316, 0.7801157657444177, -0.9271800982753966, -2.080912715667062, 1.3272934476252534, -0.26972358599724744, -0.7289913482121694, 0.2127890965961245, -1.0443315697471967, 0.3797270067075369, -1.0780802654659947, 0.25243440765286, -0.37754778227302765, -0.5667053135754672, -0.33091222909484275, -2.113203389517721, 1.0289210152987869, -0.8450506519270814, 0.6109735622795206, -0.13182260788238234, 1.2477398456264184, 0.4365418600111379], [-1.2386229671644935, -0.5717217749006982, 1.1601042480966037, 1.659784791143455, 0.7256634439794051, -1.0047213790206067, -0.031644050468944904, -0.24694084301246327, 1.2884719168437737, -1.285939649461429, 0.2625966621910707, 1.69877108788606, 0.3214898748797525, -2.2297875034976697, 0.34681374878980753, 0.011969816112538487, -1.6387472806535257, 0.034126616353499645, -2.255864790323451, -0.792380407760573, -0.3746929874736667, -1.7284300596220046, -1.1897898017883357, -1.1707942099857402], [0.7196784865538676, -0.46136585740977576, -1.1204347474437055, 1.1170224288711832, -2.365605534893038, -0.5439427690076212, -0.3344766526990083, -1.6342537261963472, 0.19921534892100679, -0.37405763787930935, -0.11752792649334409, -1.7709667895586358, -0.7601355284779399, -2.2151933490473956, -0.07385823077855289, -1.2751183237725885, -0.5250707074296781, -1.2792158552848802, -0.9164849517830946, -1.4602435219508012, -0.733582253332463, -0.11098155322055384, 1.882867292985264, 1.270327939288341], [0.8404633170083153, -0.572933912217719, -0.8378266386624827, -0.418944443245474, -0.7461126012769469, -0.07627044604908981, 0.08450757303902295, 0.08444704353669452, 2.132099137269699, -0.479308261608525, 0.5904732272797851, 0.288706376341511, -1.9116238023598098, 1.141131879283918, -1.2154428015658947, 0.38778019260345975, -0.04693358148269963, 0.6172207048281131, -0.4446727625593613, 0.24062325427269243, 1.6619873821895466, 1.6985319366117329, -1.0889833835112295, 1.5888444486866273], [0.5268516477059859, -0.18910578334520928, 0.49478836624804823, 2.377815993477693, 0.17730328372175083, -2.0851419598908123, -0.8159608893097524, -1.3704579695251122, 1.17829099203237, -0.4452745720612592, -1.9894277827638522, 0.37862737277474373, 0.6089064579436654, -0.7177574133119818, 1.2103255055542412, 1.5488313755440153, 0.013373423604454204, 0.7555352959741078, 0.9237448673698548, -0.12101992213979543, 0.7548589321919036, -1.776478060175079, 0.24983840992598882, -1.8259367919166505], [-0.05115940478625036, -2.1249573378512694, -0.20128335996936236, 0.17724875225714387, -1.7973071951294404, 0.7412296340641954, -1.0044284234477034, 1.3393744621206973, 0.8525972554908208, -1.7965388222270793, -0.5828330578274897, 1.065136817485965, 0.3149119937724018, 1.127925804066837, -0.0798628913908366, 0.5776073445031434, -0.7577778825960524, 1.0238174282756778, 0.8832732535843097, 0.7702640968811534, -0.25188306631910506, -1.2361464581050245, 0.0029631827500605223, -0.20876391345973333], [0.3538435542843982, 0.7529796025039973, -1.167174925635159, 0.09764177708560837, 0.7994548840906455, -1.0810097455485947, 1.3163527743097054, 0.2348653243268188, -1.3932056533357517, -2.0680115974185056, -0.9777244714329761, 0.7563166634563893, 2.300218793888891, -0.6588514076494827, -0.041410481668898894, 0.05179506709100376, 0.37227247476737707, -1.5630626935989103, 0.7419423089153391, -0.9320647497542889, 1.55902852388239, -1.8653722902119552, -0.667420067403227, 1.306424772946131], [-1.6413413919676714, 0.3879504032989364, -1.2583381279244097, -0.9253181004709162, -0.31463488271579043, 1.1944622255290342, 1.1407454097328171, -0.17186285913570748, -0.49308597590354064, -1.4663880668238338, -0.29720397813417687, -0.1368031123059735, -0.07302028464176163, 1.2776767581331272, 0.6210712549280717, -0.5908582032694916, 0.8986509271284846, 0.19440852501401895, 0.15055324418094612, -1.2091899585426846, 1.703455398894679, 0.10000781526321123, 1.078976889251302, 0.25726080223158576]], [[-2.2588888317906197, -0.037817134729393735, -1.2421179165486917, 0.4444788999553145, 0.12945785146413696, -0.22722070583302875, 1.8079850827147184, -0.07310817978176928, -0.08151868441411621, 0.08562511419519303, -0.6611201723117714, -1.2864621051704879, -0.6449177489438878, -0.809379210807217, 0.8278429422530807, -1.5887191321724268], [0.8731919858617001, -0.2909150542185857, -1.1248508202968974, 0.34686187202607455, 0.6917726375941653, 0.41961681980090837, -0.26290156580206736, -1.891029658407816, 2.000355742240229, -1.1155038449526673, -0.07225207198760454, -0.6865487563072346, -1.5735046263205081, -1.8621743261669184, 0.3985603803184222, -1.2657357102377305], [-0.08372706805053502, -0.9638884220991197, -0.48435664831383335, 0.6346149043405506, 0.2045578305616409, 1.165427380049489, -1.116483798523979, 1.2688078089667485, -1.082285290074782, -1.290043787148619, -0.31990953245546044, -1.2220459167823787, 0.5428477778148854, -0.6952645169367802, 0.3315879370141561, -0.527241784074088], [0.6427795833112375, -0.7091376048728015, -0.7613303495704424, 0.4144608945896028, 1.5040031033222612, 1.8684041624104886, -1.279214135653438, 0.3016554105908729, -1.2077890991088474, -0.6608757424882639, -0.9340472547668218, 0.11796382330630381, -1.7638062034880073, 0.26660164474265075, -0.5541394563857258, 0.8341133695136291], [-1.1649672461592466, -0.8417861067349639, -1.53193588151, 0.41362319426059846, -0.6001480072518416, -0.5878386743106917, 0.046727266089546554, 0.8405930863189097, 0.3649583449774928, 1.5416838068847458, -1.0702574264912506, -1.3300748343473523, -1.0407068763553, -0.30808741173840215, -2.025092017150722, -0.6231619369359551], [1.0444510427296765, 0.4888731951534714, -1.0274390619783513, 0.20598730296113396, -0.0584989940031552, 0.8094370709627485, -0.26253173579402644, -0.36796406160298323, 1.4372951081728311, 0.11753082983640309, 0.5206519287337597, -1.2834290612907273, 0.2995523615846959, 0.4134410686903169, -1.1672151976948895, 1.9588404139348061], [2.0133292656447352, -1.1505153974962958, -0.5729040441342278, 0.6858048031781073, 0.5477597728771977, -0.8772300399439679, -1.080977285273328, -0.6563524819553004, -0.8973250288715334, 0.9833254819237202, 0.16508743698671874, 0.6802134746653832, -0.05312553860919021, -0.5418991184960144, -0.1373210559638242, 1.5982353834496648], [-0.7180245582284421, 1.0859389085956934, -1.919891634805505, -0.798130269619721, 2.246179068631982, -0.3244103835949289, 0.6500077341580601, -1.3705929902741734, -0.5080918157472232, -1.1377005421338706, -1.9447107793182197, -2.3864221277342073, -1.3396811334991894, -2.290761270663723, -0.49904445206302717, 0.6729859540649406], [-0.3377736113292061, -2.337365765493158, 1.5234115340864958, 0.23462835429960915, -1.1765557668146, 0.21785654542813654, -1.3063985940789984, -0.2450316817455625, 0.7165964848398156, -1.308896141931775, -0.0017506228120162132, -0.004646313282838904, -0.9566779124700014, 0.6737836240205868, 0.02248774070755355, 0.09240123904570632], [1.0845089843803422, -1.0458184518397229, 2.122399244760373, 0.14540622556068566, 1.252722268561179, -0.36375722411367417, 0.8093490996759704, -0.692148068023645, -0.27381746827922904, 2.308033876028067, -1.3169621852788902, 0.8387443947419326, 0.5232274037621832, 0.2117410646891637, 0.018526049685555268, -0.1562187841998344], [-0.2508274439053528, 1.0507248354109195, 2.4262194758154627, 0.5944200011914835, -0.55286132435207, 0.15043534736285802, 0.4742796420205153, -0.9717529453191863, -0.4491561452375585, -1.3692067461131696, 1.110441948240967, -1.2980442614060959, -0.5327217003907575, 1.2386456055001704, 0.47256946981388204, -0.5082305037075583], [-0.25165635883230775, 0.9748122403139162, -0.6261557856781994, 0.09874024565193895, -0.9473878679056557, 0.6488755072406965, -1.4849737193328585, -1.0617776751363495, -0.6931937706265752, 0.8647826558341061, -1.536303016298091, -0.1791948725389998, 3.207912215178661, 0.14162190170175337, 1.1718492918457257, 0.13107625792011446], [0.3151230890081261, 1.7482266920664566, 0.2937502626227554, 1.027735559267839, 0.7793525112773204, 0.6998937859513187, -0.6338521621785519, 0.17277145859473353, 1.5241184305635977, 0.4448188097438984, 0.9705840322084558, 0.5905946470324227, 1.703432775266076, -0.2904947932211877, -1.3634380438197085, 0.277623676140855], [-2.31364957450323, 1.465056853698305, 0.1464961263246668, -0.35604069721624787, 0.4822660033991801, -0.4812632659698947, 0.6321578144093118, 0.1199355500464262, -0.38613983033981125, -0.2858552666892151, 1.8702567370622794, 0.06627722438231051, -2.0896399325336117, -0.1313926604127497, -1.6303068750638492, -1.1802492555264035], [-1.1826476090516607, 0.7689700840894029, -1.0573929859164368, 0.027277980304178433, -0.906040854373486, 0.5393787231788282, 0.3176215954331511, 1.2221937106243248, -0.04083014896643902, -0.7590921501263973, -0.8511998793615498, -0.06944838068415021, 1.0412464115341253, 0.07777508042936616, 1.0741023687376785, -0.49883377724820094], [0.3812591653244242, 0.5979847652934118, 2.2336369687135282, 0.8501204806237348, -0.10785573793778568, 1.056049396917972, -1.1385433931339533, 0.2788626069701359, -0.2210053572748136, -0.5611037238284582, -0.05940523158275383, -0.5197200655850112, 0.8315999390862449, -1.0881489975958556, 0.008919746208122067, -1.9889471378826775]], [[-1.3117435475339263, 1.1291721866377153, -0.7869566886457304, -0.3541038059052064, 0.17206473869548464, -0.828013936907027, 2.3423746832863923, -1.271864378345037, -0.06119972750566011, -0.40333551329775136, -1.7456363493251348, -0.3246553875751618, -1.4659953347196317, -1.167044909065301, -0.4670332416547534, 1.0810587357109063], [-0.9560005226742605, -0.33367605663216954, 0.10180674446156923, -0.5831190361225133, -0.1598643853344789, -1.0953687142132973, 0.20601824203079833, -0.37954723398567847, 0.7740650155231494, 0.4359661176365306, -0.49897719273928304, -0.22244209514197413, -0.9129111257933382, -0.3727719507035712, 0.04854032628818372, 1.2196218418252927], [0.08022047315038706, -0.8314968550811012, -0.17052593915348457, -1.7657242275037468, 0.13208964421641575, -0.968179414230147, -0.653895045219437, -0.08260446596939656, -0.1898744461552781, -0.7621487959232595, -1.3835008682894299, 1.2330705458216902, 1.3422677458442962, -0.30703570248367035, -0.5119882694858537, -0.4490227350046524], [-0.4077314341635558, -0.46723524610778794, -0.5957788524768903, 0.7623071494218824, 1.0463400029454342, 1.0605140923092418, 0.6540768200971763, -0.13340475293616133, 0.3690761359650453, 1.1402346709348334, -1.0442481209579326, -0.8366067741648775, -2.4901009000618277, 0.03891830835708571, 1.1172551785290434, -0.18723642250107012]]], "biases": [[[-0.38161417084017984], [0.46613538961688206], [0.8413709911225925], [-0.5301148986417381], [-1.0156295785100427], [1.9818361597456848], [0.9578794052972073], [0.6360541088655745], [0.46184678931929724], [0.022679515062972], [-1.2202422993189181], [-0.03365471856377008], [-0.16430569260662933], [-0.36461360562308814], [-0.9585581941837057], [-0.5789675966025914]], [[-0.014200217201473285], [-1.5372260233006751], [1.1400321697240847], [-0.6438287140411251], [1.7359035901326405], [-2.0569874535636523], [-1.0666295826093444], [-0.313545822003853], [0.0767598445129385], [0.9814003222592368], [-1.0354088839319624], [-1.3566430645809717], [-0.6728683811698707], [-0.13691079641521778], [0.17019466866150343], [1.5491078005394083]], [[-0.12464714037908324], [0.765135118533371], [-1.092801794467937], [0.3284634963179304]]]}