{"weights": [[[-0.7952883219824175, -0.14786657274976428, 1.3560126090378326, 0.6728505537079381, 0.3322316138988924, 0.30704220858151793, -2.107481033893271, 1.5932690174193433, 0.979598407389224, -0.5354439591610862, 0.499923534406883, -0.6689217048269998, 0.1391941920930487, -0.7626348262374388, 0.5009092800751035, 0.7714835892679159, -1.2858343411566424, 0.03353635009834993, -0.2584546332357355, 1.422647406245795, -1.5860219251501115, 0.516390879366122, 1.8660445145300535, 0.21386239529620668], [-0.4432814441380681, 0.11219342284189798, 0.3501408125165901, 0.5122437143864336, 0.384478787522335, 0.9416773986658014, -0.9539111219284858, -0.12513770847668232, -0.49761105709329556, -1.5285065543448244, 0.4649525888909279, -1.398611003559413, -0.2923514616614257, -0.2610775232941743, 0.2965658219328497, -0.1626635885902411, 0.6449923102254251, 0.27422909315730726, -0.27513490288503606, -0.7155994369061804, 2.2135003127718282, 1.951142857838453, -0.22756415345036785, -1.1511160718182576], [0.6849996113690929, -0.6588012050140067, 0.9209569092972947, 0.7673919816225292, 1.1694011418408614, -1.1630046483609342, 0.6708144682332425, 0.4567429087796291, 0.10463556210884861, -0.2479708734411994, 0.40767097895592314, 0.7700589692159368, -0.35118769916804354, -1.025551948507214, 0.9203101873275109, -0.9187399553609843, -1.1214866702943307, -1.9756951915631231, 0.3536543594457, -1.2393816439401557, -1.2960156937680631, -1.1821282934726098, -0.14956571135294197, -0.7201178324952728], [-1.2272247218004555, 0.47093246511889847, 0.41818402577445696, -0.33431212127776766, -2.4228854600561394, -0.7707464302999051, -1.6791860886728696, 0.5108918949701583, 0.08989768576450087, 0.6749653441502322, 0.4483092440476062, -2.0624875080582616, -1.5019828971729814, 1.5275954018138047, 0.1370485343240952, -1.3508796937999343, 0.5637225666630802, 0.9669026091334605, 0.6231372180001663, -0.08703795646072585, -0.10337045542703528, 0.9268852557081861, 0.7683462791196152, 0.08034758331688527], [-1.2053083048563702, 0.7912607367612567, -0.808380411978896, 0.18923033247160564, 2.0421078548959968, 1.5144552289940139, 1.4748133809354564, -0.46412239209532263, 1.1820221394441224, -0.3392079500394934, -0.7672015301945787, 0.6305897625351793, 0.23153107924397454, 0.7176600577824401, -1.3248383287670389, 0.9727900607177941, -1.479965765866107, 1.0531720069095756, 0.06202478288954906, 0.08775961583815886, 0.05531933278348658, 0.5980979304580054, -2.428974782791383, 0.7576948022498791], [-1.079546657083905, 0.678409075965588, -1.7382250847810223, -0.01535639087728221, -0.3684945633640354, -0.5604664359242125, -1.0164051933863654, -1.9452035581635576, 1.4873207951750902, 0.8790659073233609, -0.27076266346481326, 0.33740131210292645, 1.6892253500201866, 0.01851259763429612, -0.14908667924867702, -1.9960843275587927, -0.856351466937702, 0.3844439587233586, -0.8798582815272151, 0.27610928859621586, -1.306599827172986, 0.3282381304503636, -0.07477827878795637, -0.29085290243318235], [-1.6033770052442708, 2.3684086594525486, -1.099585393783402, -0.97098420552858, -0.16305437622457394, -0.2716604815408862, 0.14379572666703233, -1.364974155677437, 0.3220545912836812, 0.0025006032512742415, 0.22791984913441515, -0.15315973703487845, -0.5705575793655868, -0.6677801200261042, -0.274552000355728, -0.787098689349743, 0.2639310459186148, -1.7765450931029894, 0.032460318911315594, 1.3479163578434818, 0.4669241200015341, 0.04084519387688665, 0.2588537581563599, -1.2087478540818724], [0.05236553677770496, -1.734122494253796, 0.37543986567109056, -1.1086050614751195, -2.0834590352339153, -0.6888922135052491, -0.08717070698145014, -1.187703811745459, 1.1607168738323037, -1.1989702813738705, -0.6875560213192354, 1.6748763954108343, -1.3174020698154356, -0.9127547105714545, -0.6747152247242661, -0.3536888148176092, 0.429123249122755, -0.5801963061140152, 0.2570358973559864, -0.16192466723994403, -1.1610871957837272, 1.7926450723177338, 1.588396626628923, -0.4789139505096409], [-0.05856332199700148, 2.1588898155700043, 0.20482976266873598, 0.6491708020159991, -0.5916273162140506, -2.2698849460138284, 0.8101863957379162, -0.2707752253399154, -0.5516965823924234, 0.22140734303704218, -1.0515759196845724, 0.4756275110737733, -0.8812962115000019, 0.5530600431189057, -0.4838254375355954, -0.27500697595874846, -0.6297935920339892, -2.070124695199691, 1.0912222011559773, -0.8352614708863494, 0.8070361623922916, 0.03881273576684069, 0.8292269110694739, 0.18750108353872189], [-1.5601086653234857, -0.6097527590005886, 1.0073844355725328, 1.5528925837523018, 0.7998131063283581, -1.2904744124311383, -0.12213244016181476, -0.3973353402813119, 1.3032880066111336, -1.3855371135170194, 0.3855492887211054, 1.4748099839271627, 0.2797668574220759, -1.4951000866699442, 0.2251347866309218, -0.3872540723507002, -1.3538881524182174, -0.2110772347516709, -2.3847565284058714, -0.4485158195801107, -0.4426752874164773, -1.143612722901008, -1.354317182146325, -1.0840901607646394], [0.4812131359222079, -0.3575423324616714, -0.920147355621083, 1.498481350080996, -2.650221014098738, -0.9290301050190468, -0.38762004074740836, -1.8083210328001944, 0.08811373284647617, -0.1881792404221611, -0.09188248689670062, -1.6761918270129108, -0.5419735398492549, -2.0011099913815285, -0.4582524907978721, -0.6473099898753949, -0.645787644129092, -1.2870298008296177, -0.8293552031667648, -1.2345093668686227, -0.8645342524405474, 0.21811436911124527, 1.9943881217736, 1.2467781303489194], [0.6300001437713136, -0.725165150485543, -0.8840356440351324, -0.42756104780595044, -1.097843352877112, 0.22089331262032705, 0.4779035620510978, 0.010426543608597877, 2.2942301630827298, -0.17855095380274177, 0.5166445274680661, 0.4063953584895238, -1.925676366472329, 1.3495035387151837, -0.9602754352452945, 0.25856457361768986, -0.009184589144370939, 0.9841412007911166, -0.38439914263075614, 0.3550114322219689, 1.8731858711647755, 1.5989801609908119, -1.3900251545219666, 1.7623678716294051], [0.23951170531340216, -0.17082573140587762, 0.835885481673922, 2.2453475829494542, 0.3210138906129698, -1.9433900637617199, -0.8847592961594102, -0.9404942802246509, 1.321185458543163, 0.07011177993521743, -1.8721315890484473, 0.20561558955061324, 0.5852531050226689, -0.757254736511021, 1.4678379173985896, 2.1791271650783797, -0.12295488469866633, 0.6033143921428467, 1.0043129482625108, -0.1697086366019203, 0.8180439868506899, -1.9445195696855837, 0.21778778090226258, -1.9065371780504385], [0.2702498211641323, -2.2639652055134265, -0.1850074138999378, 0.43660986082442144, -1.4960562538212656, 0.5045885082208621, -0.582598326671435, 1.4765136984788358, 0.7889211551375788, -2.172880048148297, -0.28803273894110604, 0.9984358102118377, 0.0729358292626262, 1.1090944569998948, -0.630765108277358, 0.21077857438010975, -1.1751927594364775, 0.8490713987845238, 0.7807804600742537, 0.6197307031393062, -0.19770418320748873, -1.3168757241683613, 0.27481722767755257, -0.7630558603184773], [0.45349418015287923, 0.7656806529095912, -1.2542445726304545, 0.09381538249205915, 0.9230140392068596, -0.8781718318043301, 1.5728887277400108, 0.4467444156350894, -1.4909501096297548, -1.7000606443395512, -0.9736179729023244, 0.7906331248969783, 2.2985432000480106, -0.5642947908049258, 0.09628896642292512, 0.5633147173515516, 0.4762705223541668, -1.6082640423170178, 0.8933517154206729, -0.3873697768555724, 1.5571099110554218, -1.4688041448619262, -0.6148408798533316, 1.24147691352175], [-1.3879280234127673, 0.44266682818423886, -1.2403306101618226, -0.9034516182808741, -0.2562429385139983, 1.3484330235430684, 1.2002679187471792, -0.17346934620491528, -0.8789393391979273, -1.3610565859642691, -0.06794427033975917, -0.33142803567059265, -0.18136651958114353, 1.6612978813196473, 0.5617446343080963, -0.6735620794008627, 0.6620784402335558, -0.180708808649075, 0.08911728192768036, -0.9732568710164002, 1.7917451468603662, 0.14741472693074686, 1.0210973970324964, -0.042047591770821374]], [[-2.190070657071684, -0.18184716133011952, -1.4075707819906593, 0.1589387636466654, 0.06799276907873761, -0.056803202833422176, 1.7095374785734212, -0.026130092888515227, 0.008888628577150379, -0.07120206821758003, -0.6143680930931221, -1.4088230310992214, -0.8943539245285032, -0.5986573137844979, 0.5960429059250164, -1.6897624893480694], [0.8570453186442436, -0.5236240061880028, -1.0324080073263795, 0.40523044541425607, 0.8045191296128694, 0.2418882262416951, -0.33080504354193746, -2.1698878182481067, 1.7531297776922226, -1.1837280991594903, -0.16910822579965648, -0.5850931499403742, -1.366951470201707, -1.459027866115522, 0.19452953670605944, -0.9567906918786611], [-0.19200685241400298, -0.7406919526141469, -0.5621816095397054, 0.6307537871453314, 0.23164921948641948, 1.1323666757483213, -1.0966831913534667, 0.9740955190130072, -1.1037591069631736, -1.087685493996834, -0.40397146123640565, -1.1715114542876113, 0.4158653772194944, -0.8932335977195947, -0.0031569169476014236, -0.6186839124532693], [0.49301563073762567, -0.6263221957583375, -0.9478248302432276, 0.45272532691725326, 1.4819650307076382, 2.0430897630006, -1.2076590928161441, 0.33238878959222423, -1.2908966819630698, -0.7506458535787889, -0.9211944280580071, 0.04494587476289845, -1.8286031032402281, 0.25319703682714123, -0.6008906067727162, 0.8304980057348161], [-1.0922919284933696, -0.8864008196216466, -1.4195725292786676, 0.6120865731655989, -0.5608936882660938, -0.8999121206721388, 0.008611908081679538, 0.5399741070102773, 0.25160275534002996, 1.4120654204394274, -1.0256150552816126, -1.3218265378698746, -1.004972916094438, -0.01480326648884664, -1.626196796270073, -0.40669673136132267], [1.0534537380592113, 0.558169039221302, -1.0100353734453817, 0.2294427901550099, 0.0015617308685877424, 1.0527208860806572, -0.2255474997092898, -0.1976978937411456, 1.1341051204233554, 0.1305759294723566, 0.5045780854722322, -1.191301123855374, 0.4520037432812028, 0.5006907138961725, -1.3629635176587824, 2.0506067927710716], [2.127518626290604, -1.301546416919327, -0.5862048452500636, 0.5285583480584332, 0.517766826962384, -0.9169906062996487, -0.9463108768068108, -0.5808556709141657, -0.8209154329730814, 0.9223783660342036, 0.16582701901237892, 0.44020762019512905, -0.1416514140312516, -0.485324804378226, 0.017334845677404426, 1.3923691663934852], [-0.5934063623512931, 1.1313886465739575, -2.1762450297917963, -0.9847707758522647, 2.230213745764181, -0.6631584193833728, 0.44551509490917623, -1.4187959634859566, -0.516552770928276, -0.9968531778847833, -1.8605157545047466, -2.1921269242355548, -1.3270974142383845, -2.6714997347778158, -0.24497199551921775, 0.6763711673717425], [-0.25108608903663726, -2.553130288612, 1.6409523167288875, -0.09310217986841957, -1.1434499801810667, 0.11246195809379267, -1.1161350597289468, -0.8667793073947473, 0.5928715915426104, -1.365961901153346, 0.012572427598354374, -0.018050002190552555, -0.9661892665429753, 1.0868399855151152, -0.019663929226559747, 0.2703464120533791], [1.0735272569175793, -1.0180704141209198, 1.9756317975457431, 0.1215476722389611, 1.3683645448141695, -0.42691181105278225, 0.4510598735324371, -0.8419548862022075, -0.16370109851967435, 2.3620306679723275, -1.4303228480277217, 0.8154646717067847, 0.5647958446863657, 0.30232051879605526, 0.07093584459072177, -0.4653086738200437], [-0.26235304655353536, 1.0170479662735494, 2.583846938261733, 0.7812766607376377, -0.5314597025546677, -0.05297902506484292, 0.49359529692213605, -0.7300165316356468, -0.4370760286923252, -1.1287335779860235, 1.2172533180893375, -1.3400124183869437, -0.20717454963904275, 1.2456581356597314, 0.04135693954317739, -0.33062772339631963], [-0.3071030548016126, 0.9923263001749767, -0.7265004757644374, 0.07221314623431996, -0.9853660967409298, 0.5622646295099684, -1.308550848505246, -0.7489963885775335, -0.694203457396514, 0.9767855728839825, -1.6208497436304992, -0.26980893932705874, 3.466376293545179, -0.2734984534262178, 1.04159139179031, 0.000839350355302082], [0.3341119184681266, 1.4827678360932364, 0.4609616005893951, 0.6698490019304185, 0.8228226779553689, 0.5698759293158591, -0.39537599829001485, 0.0697041319687439, 1.5333963101582595, 0.10544686373747222, 0.994203841080535, 0.5610420816505548, 1.584730563142351, -0.21840544289718794, -1.7538705087122821, -0.009953319447070477], [-2.2505118672016775, 1.2619753067011326, 0.2539903363114897, -0.3441037008555186, 0.23677377050644496, -0.8902383681033058, 0.5515465435368118, 0.013656706905397595, -0.4378298801305819, -0.2697147646596735, 1.9225146645379974, 0.11560512666980409, -1.9606468909737982, -0.16077548198321778, -1.2391130808154438, -1.2250015158430059], [-1.0221933884778747, 0.9233596435688951, -1.0333013720261137, -0.10281253067428522, -0.8599410192133629, 0.7315569904489643, 0.4185730825392979, 1.1477716579697048, -0.25580472690979505, -0.8838333481369169, -0.8004790264575414, 0.05286738148582945, 1.1935524123964003, 0.24202951737693376, 1.0444913452123448, -0.5492716086261528], [0.3556054483085749, 0.5175129359889988, 2.072320475878874, 0.7454893942250105, -0.22326378297603275, 0.9809143588458056, -0.8051185335005201, -0.09189238874788182, -0.38413249999163634, -0.627194717710795, -0.10405445855836012, -0.6075500586931388, 1.0086542820109319, -0.9811093169760818, -0.21107842285098272, -2.4238252110694294]], [[-1.297857608239995, 0.9509547099637353, -0.556049658714115, -0.6316644237263489, 0.6170427728759269, -1.3835737891479567, 1.9277639311958705, -0.8049564272606142, 0.03484582434182963, -0.32981094280556417, -1.3463035317807257, -0.0854516140917761, -1.1982159963741927, -1.167044909065301, -0.5426134677457417, 1.172115577296378], [-1.095208083812642, -0.001069635218476181, -0.02434504470059795, -0.23151445844530974, 0.06434069088826201, -1.1225281430404443, 0.20552945200903977, -0.33778992037960803, 0.9463304557786177, 0.4177393119545511, -0.5967626940095359, -0.0592753223742402, -1.0927842272733312, -0.3727719507035712, 0.11716758158665735, 1.227660413624997], [-0.1049096076814462, -1.249242007138613, -0.16227199695870104, -1.5958290072002497, 0.3564351215965774, -1.1061839113055776, -0.9011596806897165, -0.06368656350485506, -0.6607780989716405, -0.6551630358796965, -1.2144765113953995, 1.2029921987906558, 1.3839704365111334, -0.30703570248367035, -0.5738957595590544, -0.41295219183265247], [-0.572084275589957, -0.24885713899275877, -0.8026052146634219, 0.6597430521254342, 0.8551221290074633, 0.9199879053399238, 0.4050954580744503, 0.013056552783474423, 0.41553276346932233, 1.1000876490953069, -1.140125328144793, -0.5281342830130178, -2.5467350889623805, 0.03891830835708571, 1.1385417552132344, 0.14225571026756728]]], "biases": [[[-0.38161417084017984], [0.46613538961688206], [0.8413709911225925], [-0.5301148986417381], [-1.0156295785100427], [1.9818361597456848], [0.9578794052972073], [0.6360541088655745], [0.46184678931929724], [0.022679515062972], [-1.2202422993189181], [-0.03365471856377008], [-0.16430569260662933], [-0.36461360562308814], [-0.9585581941837057], [-0.5789675966025914]], [[-0.014200217201473285], [-1.5372260233006751], [1.1400321697240847], [-0.6438287140411251], [1.7359035901326405], [-2.0569874535636523], [-1.0666295826093444], [-0.313545822003853], [0.0767598445129385], [0.9814003222592368], [-1.0354088839319624], [-1.3566430645809717], [-0.6728683811698707], [-0.13691079641521778], [0.17019466866150343], [1.5491078005394083]], [[-0.12464714037908324], [0.765135118533371], [-1.092801794467937], [0.3284634963179304]]]}